tree
version=v4
num_class=1
num_tree_per_iteration=1
label_index=0
max_feature_idx=15
objective=binary sigmoid:1
feature_names=ret_1d ret_5d ret_20d volatility_5d volatility_20d rsi macd_hist macd_dif macd_dea kdj_k kdj_d kdj_j volume_ratio_5 ma5_ma20_cross close_ma5_ratio close_ma20_ratio
feature_infos=[-0.089061824470384798:0.10062893081761026] [-0.14940577249575548:0.15208243621996087] [-0.24044585987261158:0.23586678052946208] [0:0.057236495987089665] [0:0.035007185871632193] [0:94.396551724137964] [-11.576059542590983:21.512389625208581] [-36.685042842006624:41.587243120563016] [-32.370626560395763:32.60721502845724] [3.5068756574749846:94.635973728813923] [5.0766564270163741:91.886687311863852] [-20.889728074688662:119.10793080065356] [0:1] [0:1] [0:1.0739341608202913] [0:1.1101070154577883]
tree_sizes=3303 3391 3384

Tree=0
num_leaves=31
num_cat=0
split_feature=10 3 13 3 4 4 11 4 11 3 11 11 10 0 3 0 10 2 5 3 2 1 11 10 0 5 0 3 4 0
split_gain=21.141 17.5657 16.2862 16.1389 16.0312 9.06845 19.0953 16.4977 12.0398 8.34985 7.61567 8.22346 7.2886 6.92866 12.0078 17.0236 6.66125 6.32527 8.8077 10.06 7.97087 12.5922 6.06823 4.55546 7.71627 9.76028 5.50313 4.01114 7.93889 3.82608
threshold=74.698811101465822 0.028822144177900872 1.0000000180025095e-35 0.017987148401226918 0.0082669167191574619 0.0096707412061738853 15.244340752272352 0.011788845028360709 75.063297855531431 0.013615634163003215 84.817986421225783 96.005244409661572 23.844004302098238 0.010992306174088974 0.010978949147076903 -0.0008727794077732497 13.857571817873112 0.027710885614646189 29.738211401653476 0.0074076010560828976 -0.051948090888919544 -0.0032511376894360784 5.8233932390949734 63.143554040960304 0.0024377209189420106 58.094616436653006 0.019722626153571902 0.01981993160175417 0.014126656058539144 0.0018578731365178627
decision_type=2 2 2 2 2 2 2 2 2 2 2 2 2 2 2 2 2 2 2 2 2 2 2 2 2 2 2 2 2 2
left_child=1 5 -3 4 -2 8 16 9 17 13 -6 -12 -9 14 15 -8 -7 18 19 -1 -21 -22 -20 24 25 27 -26 28 -14 -25
right_child=3 2 -4 -5 10 6 7 12 -10 -11 11 -13 23 -15 -16 -17 -18 -19 22 20 21 -23 -24 29 26 -27 -28 -29 -30 -31
leaf_value=-1.3271948104533322 -1.3219341624926206 -1.1842881649814798 -1.3200063474014283 -1.3317061907134928 -1.1583108566276616 -1.2786819008312515 -1.3030415745989348 -1.2368137115430464 -1.3564806089267893 -1.3067526186494802 -1.2824880998574522 -1.186487302196618 -1.2524614186507594 -1.3030415745989348 -1.1397556363749342 -1.1954212971331164 -1.3335946362966293 -1.2462464656514562 -1.285803176428659 -1.3149169155606801 -1.1754916161209277 -1.3030415745989348 -1.3466545524672919 -1.3551772178456223 -1.3341436580701729 -1.2004818117474965 -1.2733532221945709 -1.2462464656514562 -1.3360286328260054 -1.2994429864287087
leaf_weight=9.9365568011999148 3.7051567733287873 5.89456759393215 3.5367405563592911 4.8840702921152106 5.3893189430236808 6.5682324618101111 6.7366486787796083 4.3788216412067404 16.841621696949005 5.3893189430236808 4.3788216412067396 4.5472378581762314 4.5472378581762332 3.3683243393898001 3.3683243393898001 8.0839784145355242 34.693740695714951 3.8735729902982703 5.2209027260541943 4.2104054242372513 4.5472378581762314 3.3683243393897992 19.031032517552376 6.9050648957490903 14.146962225437166 3.7051567733287802 5.0524865090847006 3.8735729902982703 7.5787297636270523 5.5577351599931717
leaf_count=59 22 35 21 29 32 39 40 26 100 32 26 27 27 20 20 48 206 23 31 25 27 20 113 41 84 22 30 23 45 33
internal_value=-1.29659 -1.30179 -1.23518 -1.25109 -1.22924 -1.30508 -1.29707 -1.28321 -1.3199 -1.25109 -1.20524 -1.23358 -1.29874 -1.23717 -1.22497 -1.24434 -1.32485 -1.30762 -1.31276 -1.2899 -1.25933 -1.22977 -1.33355 -1.30401 -1.29559 -1.27361 -1.31815 -1.29054 -1.30469 -1.33032
internal_weight=223.32 200.415 9.43131 22.9046 18.0205 190.984 123.954 82.6924 67.0297 26.9466 14.3154 8.92606 55.7458 21.5573 18.189 14.8206 41.262 50.188 46.3145 22.0625 12.126 7.91556 24.2519 51.3669 38.9041 19.7047 19.1994 15.9995 12.126 12.4628
internal_count=1326 1190 56 136 107 1134 736 491 398 160 85 53 331 128 108 88 245 298 275 131 72 47 144 305 231 117 114 95 72 74
is_linear=0
shrinkage=1


Tree=1
num_leaves=31
num_cat=0
split_feature=10 4 11 6 0 4 8 1 4 6 10 8 4 0 2 10 14 4 14 5 4 4 1 0 10 4 2 6 4 0
split_gain=18.7731 17.1724 9.33159 17.923 23.3073 17.1206 16.4985 14.6332 13.6054 18.0991 17.5177 13.0252 10.4202 10.0548 9.67468 9.53536 10.5333 17.3235 8.69511 8.25723 7.27354 9.12115 5.9391 4.9408 4.81714 4.63138 6.07478 4.52751 3.34311 3.63929
threshold=76.110196011255951 0.018806159458246926 11.270989819585958 -0.032774917448465578 -0.007561901404553705 0.0097816516642652927 -1.7316868884457748 -0.0058624760763325004 0.011733259053996505 0.27840110016945302 62.776248322850385 -0.22110539393071568 0.020425581547212541 0.0037638991845811991 0.043919936844070924 40.952087723657222 1.0012517569115205 0.012438194655173653 0.99742579640694184 27.921459902342196 0.013151631313910235 0.0082669167191574619 -0.0083371242765445924 0.00092550240947553164 43.103649258141651 0.011121811485268033 -0.0011802414278510029 0.007664498938592861 0.009983074783409809 0.011083675131383088
decision_type=2 2 2 2 2 2 2 2 2 2 2 2 2 2 2 2 2 2 2 2 2 2 2 2 2 2 2 2 2 2
left_child=2 20 6 4 7 14 -1 -4 11 22 -11 13 -8 -7 19 18 -17 -18 -6 27 21 -2 24 -23 -10 26 -13 -5 -20 -30
right_child=1 -3 3 5 15 8 12 -9 9 10 -12 25 -14 -15 -16 16 17 -19 28 -21 -22 23 -24 -25 -26 -27 -28 -29 29 -31
leaf_value=0.069045798455677362 -0.020350327964850215 0.14805127622831954 0.16519455340970801 0.031880978136326787 0.040203601395051351 -0.045096879759487021 -0.040859444029939115 0.034727532173483448 -0.034268856818108553 0.12213783547347508 -0.012270614417344717 0.10203177628335543 0.030968159412320079 0.064220875414032222 0.038116108038782091 -0.0018480030471371368 0.15916064791300658 0.014240469712144075 -0.0634783989310891 -0.052922217730064593 -0.024054501363123034 0.11434228722832124 -0.033418119844031841 0.038353510842046738 0.04095211277829254 0.12608418150741826 0.0090348559990982898 -0.03868674921523968 0.011157037262028584 -0.050953896995403453
leaf_weight=4.5254673659801474 3.4899442791938844 3.5224123746156684 4.5662573128938675 5.2294159084558469 6.217257589101794 5.287958115339281 37.765160337090492 4.0602217316627485 3.3853460103273374 4.8280986696481687 4.8687553703784943 3.6094270944595337 5.8286145329475394 3.4928265810012817 4.4121693670749655 7.2659232318401328 3.8029060661792737 4.5050048530101776 5.0079658776521674 29.554959818720818 4.9805122762918463 4.1907303035259229 28.102826818823814 4.3695480823516846 5.7323761433362961 3.6700442582368851 3.4198302626609784 4.0203696936368942 5.9828632175922376 3.8930402100086212
leaf_count=27 21 20 26 31 36 31 227 24 20 28 29 21 35 20 26 43 22 27 30 180 29 24 167 25 34 21 20 24 35 23
internal_value=0.00202 0.0475566 -0.00258965 0.00338447 0.0298393 -0.0075488 -0.0218228 0.103788 0.00839337 -0.0061907 0.0546518 0.0435188 -0.0312559 -0.00161239 -0.032042 0.0124456 0.0421219 0.080577 -0.00945713 -0.0400191 0.0267716 0.0477787 -0.0220417 0.0755542 0.0130231 0.0805575 0.0567875 0.00120909 -0.0302013 -0.0133268
internal_weight=223.588 20.5531 203.035 154.916 45.3014 109.614 48.1192 8.62648 66.3975 46.9174 9.69685 19.4801 43.5938 8.78078 43.2169 36.675 15.5738 8.30791 21.1011 38.8047 17.0307 12.0502 37.2205 8.56028 9.11772 10.6993 7.02926 9.24979 14.8839 9.8759
internal_count=1326 119 1207 918 266 652 289 50 391 278 57 113 262 51 261 216 92 49 124 235 99 70 221 49 54 62 41 55 88 58
is_linear=0
shrinkage=0.05


Tree=2
num_leaves=31
num_cat=0
split_feature=10 3 7 8 15 4 11 4 7 11 8 7 8 1 0 7 10 5 8 4 8 14 7 3 2 1 7 9 10 4
split_gain=16.5236 14.4928 13.4593 18.0373 11.628 7.63186 16.0109 14.0646 11.712 11.0275 10.3144 11.9387 8.60601 12.3112 10.5505 14.0246 8.20782 8.45688 7.71979 8.95446 7.42241 6.01707 5.77261 5.43581 5.40263 8.03786 8.96195 8.46015 4.92022 4.16594
threshold=74.698811101465822 0.028822144177900872 0.43425617616312456 0.054204658562996992 0.99489457413649229 0.0096707412061738853 11.270989819585958 0.011788845028360709 -0.46266395794287346 75.063297855531431 -0.22110539393071568 -0.60574971089355489 0.1660774228992816 0.01410676687721535 0.0039654677468088382 0.54518090334347769 44.687871443643985 65.265230594796193 -0.17937841515702671 0.014190963314747262 -2.2758478632191843 1.0014374139290365 0.92462935245589872 0.022625936643190975 0.027710885614646189 -0.014550516800793332 -6.8458183661934973 22.056164528297582 61.438023307743855 0.021363203004923042
decision_type=2 2 2 2 2 2 2 2 2 2 2 2 2 2 2 2 2 2 2 2 2 2 2 2 2 2 2 2 2 2
left_child=1 5 3 -2 -3 9 18 10 -9 24 11 20 23 14 15 -14 21 -18 19 -7 -8 -12 -4 -10 25 27 -27 -1 -17 -20
right_child=2 4 22 -5 -6 6 7 8 12 -11 16 -13 13 -15 -16 28 17 -19 29 -21 -22 -23 -24 -25 -26 26 -28 -29 -30 -31
leaf_value=-0.013228581329228837 0.021801567315353355 0.1034424511256547 -0.050592462812742191 0.14147052195289342 -0.0059143214408681382 -0.025207384417914293 -0.010841764398218609 0.069942101294794889 -0.03555938882845313 -0.056027540934350473 0.068743591087335534 -0.064095030185586738 0.10058040987486271 0.071838320232634284 -0.063279793182884375 0.017206247832125886 0.12937403685572998 0.036226229992311669 -0.049265579821708191 0.072334460159237335 0.085154480709478883 -0.022334412822736106 0.025907571306074434 0.024037715799048235 0.04745996159097185 0.046498915187328224 -0.037391975821691188 0.064112988163571361 -0.063033125500675427 0.010326726494416176
leaf_weight=8.9749776273965782 6.9011257290840167 5.6174913644790632 3.625423535704611 5.7912551611661911 4.2850999236106873 6.5219950526952726 3.7555727362632743 5.2342181205749503 25.039455160498623 15.862588748335837 3.7345250844955471 4.0993884652853039 3.6362989991903358 6.6262193322181693 5.7989539951086035 4.2964903563261032 6.3963767737150174 3.936234176158905 22.303545296192173 3.6807190775871277 4.341256082057952 3.5251887589693069 7.7107713222503662 4.5161584466695777 4.0158113092184058 3.605282023549079 27.216043367981918 5.8343864679336539 3.4402961581945419 3.3767489045858374
leaf_count=54 39 31 21 32 25 39 22 31 150 100 21 24 21 39 35 25 35 22 138 22 25 20 44 26 23 21 166 34 21 20
internal_value=0.00186578 -0.00284829 0.0410384 0.0764039 0.056121 -0.00592545 0.00135501 0.0127914 -0.0014314 -0.0197352 0.0407647 0.00542873 -0.00843342 0.0139453 -0.00839401 0.0195914 0.0652621 0.0938891 -0.0268117 0.0099817 0.0406283 0.0245177 0.00144213 -0.0264528 -0.00813946 -0.0130326 -0.027579 0.0172414 -0.0184736 -0.0414297
internal_weight=223.7 199.671 24.0286 12.6924 9.90259 189.769 124.26 88.3766 58.5881 65.5091 29.7885 12.1962 53.3539 23.7983 17.172 11.3731 17.5923 10.3326 35.883 10.2027 8.09683 7.25971 11.3362 29.5556 49.6465 45.6307 30.8213 14.8094 7.73679 25.6803
internal_count=1326 1190 136 71 56 1134 736 517 348 398 169 71 317 141 102 67 98 57 219 61 47 41 65 176 298 275 187 88 46 158
is_linear=0
shrinkage=0.05


end of trees

feature_importances:
volatility_20d=17
kdj_d=11
ret_1d=10
volatility_5d=8
kdj_j=8
macd_dea=7
macd_dif=6
ret_5d=5
ret_20d=5
rsi=4
macd_hist=3
close_ma5_ratio=3
kdj_k=1
ma5_ma20_cross=1
close_ma20_ratio=1

parameters:
[boosting: gbdt]
[objective: binary]
[metric: auc]
[tree_learner: serial]
[device_type: cpu]
[data_sample_strategy: bagging]
[data: ]
[valid: ]
[num_iterations: 200]
[learning_rate: 0.05]
[num_leaves: 31]
[num_threads: 0]
[seed: 42]
[deterministic: 0]
[force_col_wise: 0]
[force_row_wise: 0]
[histogram_pool_size: -1]
[max_depth: -1]
[min_data_in_leaf: 20]
[min_sum_hessian_in_leaf: 0.001]
[bagging_fraction: 0.8]
[pos_bagging_fraction: 1]
[neg_bagging_fraction: 1]
[bagging_freq: 5]
[bagging_seed: 400]
[bagging_by_query: 0]
[feature_fraction: 0.8]
[feature_fraction_bynode: 1]
[feature_fraction_seed: 30056]
[extra_trees: 0]
[extra_seed: 12879]
[early_stopping_round: 20]
[early_stopping_min_delta: 0]
[first_metric_only: 0]
[max_delta_step: 0]
[lambda_l1: 0]
[lambda_l2: 0]
[linear_lambda: 0]
[min_gain_to_split: 0]
[drop_rate: 0.1]
[max_drop: 50]
[skip_drop: 0.5]
[xgboost_dart_mode: 0]
[uniform_drop: 0]
[drop_seed: 17869]
[top_rate: 0.2]
[other_rate: 0.1]
[min_data_per_group: 100]
[max_cat_threshold: 32]
[cat_l2: 10]
[cat_smooth: 10]
[max_cat_to_onehot: 4]
[top_k: 20]
[monotone_constraints: ]
[monotone_constraints_method: basic]
[monotone_penalty: 0]
[feature_contri: ]
[forcedsplits_filename: ]
[refit_decay_rate: 0.9]
[cegb_tradeoff: 1]
[cegb_penalty_split: 0]
[cegb_penalty_feature_lazy: ]
[cegb_penalty_feature_coupled: ]
[path_smooth: 0]
[interaction_constraints: ]
[verbosity: -1]
[saved_feature_importance_type: 0]
[use_quantized_grad: 0]
[num_grad_quant_bins: 4]
[quant_train_renew_leaf: 0]
[stochastic_rounding: 1]
[linear_tree: 0]
[max_bin: 255]
[max_bin_by_feature: ]
[min_data_in_bin: 3]
[bin_construct_sample_cnt: 200000]
[data_random_seed: 175]
[is_enable_sparse: 1]
[enable_bundle: 1]
[use_missing: 1]
[zero_as_missing: 0]
[feature_pre_filter: 1]
[pre_partition: 0]
[two_round: 0]
[header: 0]
[label_column: ]
[weight_column: ]
[group_column: ]
[ignore_column: ]
[categorical_feature: ]
[forcedbins_filename: ]
[precise_float_parser: 0]
[parser_config_file: ]
[objective_seed: 16083]
[num_class: 1]
[is_unbalance: 0]
[scale_pos_weight: 1]
[sigmoid: 1]
[boost_from_average: 1]
[reg_sqrt: 0]
[alpha: 0.9]
[fair_c: 1]
[poisson_max_delta_step: 0.7]
[tweedie_variance_power: 1.5]
[lambdarank_truncation_level: 30]
[lambdarank_norm: 1]
[label_gain: ]
[lambdarank_position_bias_regularization: 0]
[eval_at: ]
[multi_error_top_k: 1]
[auc_mu_weights: ]
[num_machines: 1]
[local_listen_port: 12400]
[time_out: 120]
[machine_list_filename: ]
[machines: ]
[gpu_platform_id: -1]
[gpu_device_id: -1]
[gpu_use_dp: 0]
[num_gpu: 1]

end of parameters

pandas_categorical:[]
